<?xml version="1.0"?>
<opencv_storage>
<myhaar type_id="opencv-haar-classifier">
  <size>
    24 24</size>
  <stages>
    <_>
      <trees>
        <_>
          <_>
            <feature>
              <rects>
                <_>
                  4 8 6 4 -1.</_>
                <_>
                  6 8 2 4 3.</_></rects>
              <tilted>0</tilted></feature>
            <threshold>-0.0136302299797535</threshold>
            <left_val>0.8808510899543762</left_val>
            <right_val>-0.9999930858612061</right_val></_></_></trees>
      <stage_threshold>0.8808510899543762</stage_threshold>
      <parent>-1</parent>
      <next>-1</next></_>
    <_>
      <trees>
        <_>
          <_>
            <feature>
              <rects>
                <_>
                  7 7 10 6 -1.</_>
                <_>
                  7 9 10 2 3.</_></rects>
              <tilted>0</tilted></feature>
            <threshold>0.0245595201849937</threshold>
            <left_val>-0.7407615184783936</left_val>
            <right_val>0.9092820882797241</right_val></_></_>
        <_>
          <_>
            <feature>
              <rects>
                <_>
                  1 20 22 4 -1.</_>
                <_>
                  1 22 22 2 2.</_></rects>
              <tilted>0</tilted></feature>
            <threshold>0.0124200098216534</threshold>
            <left_val>-1.</left_val>
            <right_val>0.6930177807807922</right_val></_></_></trees>
      <stage_threshold>-0.0477437414228916</stage_threshold>
      <parent>0</parent>
      <next>-1</next></_>
    <_>
      <trees>
        <_>
          <_>
            <feature>
              <rects>
                <_>
                  0 4 24 14 -1.</_>
                <_>
                  6 4 12 14 2.</_></rects>
              <tilted>0</tilted></feature>
            <threshold>-0.1671968996524811</threshold>
            <left_val>0.6999999284744263</left_val>
            <right_val>-0.9999926090240479</right_val></_></_></trees>
      <stage_threshold>0.6999999284744263</stage_threshold>
      <parent>1</parent>
      <next>-1</next></_>
    <_>
      <trees>
        <_>
          <_>
            <feature>
              <rects>
                <_>
                  8 6 6 6 -1.</_>
                <_>
                  8 8 6 2 3.</_></rects>
              <tilted>0</tilted></feature>
            <threshold>5.1098288968205452e-003</threshold>
            <left_val>-1.</left_val>
            <right_val>0.6072700023651123</right_val></_></_></trees>
      <stage_threshold>0.6072700023651123</stage_threshold>
      <parent>2</parent>
      <next>-1</next></_>
    <_>
      <trees>
        <_>
          <_>
            <feature>
              <rects>
                <_>
                  7 16 10 5 -1.</_>
                <_>
                  12 16 5 5 2.</_></rects>
              <tilted>0</tilted></feature>
            <threshold>-0.0249060802161694</threshold>
            <left_val>0.6806082725524902</left_val>
            <right_val>-0.9999930858612061</right_val></_></_></trees>
      <stage_threshold>0.6806082725524902</stage_threshold>
      <parent>3</parent>
      <next>-1</next></_>
    <_>
      <trees>
        <_>
          <_>
            <feature>
              <rects>
                <_>
                  6 9 12 3 -1.</_>
                <_>
                  6 10 12 1 3.</_></rects>
              <tilted>0</tilted></feature>
            <threshold>3.3487030304968357e-003</threshold>
            <left_val>-1.</left_val>
            <right_val>0.6431196928024292</right_val></_></_></trees>
      <stage_threshold>0.6431196928024292</stage_threshold>
      <parent>4</parent>
      <next>-1</next></_>
    <_>
      <trees>
        <_>
          <_>
            <feature>
              <rects>
                <_>
                  0 0 21 10 -1.</_>
                <_>
                  0 5 21 5 2.</_></rects>
              <tilted>0</tilted></feature>
            <threshold>-0.0856200605630875</threshold>
            <left_val>0.7265625000000000</left_val>
            <right_val>-0.7162988185882568</right_val></_></_>
        <_>
          <_>
            <feature>
              <rects>
                <_>
                  14 3 9 12 -1.</_>
                <_>
                  11 6 9 6 2.</_></rects>
              <tilted>1</tilted></feature>
            <threshold>-0.1389998048543930</threshold>
            <left_val>0.5246574282646179</left_val>
            <right_val>-0.4505909085273743</right_val></_></_></trees>
      <stage_threshold>-0.1916414052248001</stage_threshold>
      <parent>5</parent>
      <next>-1</next></_></stages></myhaar>
</opencv_storage>
