<?xml version="1.0"?>
<opencv_storage>
<myhaar type_id="opencv-haar-classifier">
  <size>
    24 24</size>
  <stages>
    <_>
      <trees>
        <_>
          <_>
            <feature>
              <rects>
                <_>
                  0 0 21 24 -1.</_>
                <_>
                  0 6 21 12 2.</_></rects>
              <tilted>0</tilted></feature>
            <threshold>-0.1268144994974136</threshold>
            <left_val>0.9192826747894287</left_val>
            <right_val>-1.0000009536743164</right_val></_></_></trees>
      <stage_threshold>0.9192826747894287</stage_threshold>
      <parent>-1</parent>
      <next>-1</next></_>
    <_>
      <trees>
        <_>
          <_>
            <feature>
              <rects>
                <_>
                  0 0 10 22 -1.</_>
                <_>
                  5 0 5 22 2.</_></rects>
              <tilted>0</tilted></feature>
            <threshold>-0.0944297611713409</threshold>
            <left_val>0.9598780274391174</left_val>
            <right_val>-0.8372015953063965</right_val></_></_>
        <_>
          <_>
            <feature>
              <rects>
                <_>
                  1 14 23 10 -1.</_>
                <_>
                  1 19 23 5 2.</_></rects>
              <tilted>0</tilted></feature>
            <threshold>0.1632969975471497</threshold>
            <left_val>-0.7408320903778076</left_val>
            <right_val>0.8969076871871948</right_val></_></_></trees>
      <stage_threshold>0.0597061514854431</stage_threshold>
      <parent>0</parent>
      <next>-1</next></_>
    <_>
      <trees>
        <_>
          <_>
            <feature>
              <rects>
                <_>
                  0 20 17 4 -1.</_>
                <_>
                  0 22 17 2 2.</_></rects>
              <tilted>0</tilted></feature>
            <threshold>0.0140304798260331</threshold>
            <left_val>-1.</left_val>
            <right_val>0.6090226769447327</right_val></_></_></trees>
      <stage_threshold>0.6090226769447327</stage_threshold>
      <parent>1</parent>
      <next>-1</next></_>
    <_>
      <trees>
        <_>
          <_>
            <feature>
              <rects>
                <_>
                  4 0 4 1 -1.</_>
                <_>
                  4 0 2 1 2.</_></rects>
              <tilted>1</tilted></feature>
            <threshold>4.3132819700986147e-004</threshold>
            <left_val>-1.</left_val>
            <right_val>0.8528143167495728</right_val></_></_></trees>
      <stage_threshold>0.8528143167495728</stage_threshold>
      <parent>2</parent>
      <next>-1</next></_>
    <_>
      <trees>
        <_>
          <_>
            <feature>
              <rects>
                <_>
                  12 7 5 12 -1.</_>
                <_>
                  12 7 5 6 2.</_></rects>
              <tilted>1</tilted></feature>
            <threshold>-0.1218245998024941</threshold>
            <left_val>0.7223346233367920</left_val>
            <right_val>-0.6015648245811462</right_val></_></_>
        <_>
          <_>
            <feature>
              <rects>
                <_>
                  3 5 21 2 -1.</_>
                <_>
                  10 5 7 2 3.</_></rects>
              <tilted>0</tilted></feature>
            <threshold>-0.0426248982548714</threshold>
            <left_val>0.7925856709480286</left_val>
            <right_val>-0.2446433007717133</right_val></_></_>
        <_>
          <_>
            <feature>
              <rects>
                <_>
                  10 1 2 9 -1.</_>
                <_>
                  10 4 2 3 3.</_></rects>
              <tilted>0</tilted></feature>
            <threshold>-4.3330001062713563e-004</threshold>
            <left_val>0.5261451005935669</left_val>
            <right_val>-0.9560728073120117</right_val></_></_></trees>
      <stage_threshold>-0.3200629949569702</stage_threshold>
      <parent>3</parent>
      <next>-1</next></_>
    <_>
      <trees>
        <_>
          <_>
            <feature>
              <rects>
                <_>
                  7 2 5 15 -1.</_>
                <_>
                  7 7 5 5 3.</_></rects>
              <tilted>0</tilted></feature>
            <threshold>-4.6816268004477024e-003</threshold>
            <left_val>0.5179755091667175</left_val>
            <right_val>-0.8824514150619507</right_val></_></_>
        <_>
          <_>
            <feature>
              <rects>
                <_>
                  0 0 24 22 -1.</_>
                <_>
                  8 0 8 22 3.</_></rects>
              <tilted>0</tilted></feature>
            <threshold>-0.3947618901729584</threshold>
            <left_val>0.7264143824577332</left_val>
            <right_val>-0.5975608229637146</right_val></_></_></trees>
      <stage_threshold>-0.1560370028018951</stage_threshold>
      <parent>4</parent>
      <next>-1</next></_>
    <_>
      <trees>
        <_>
          <_>
            <feature>
              <rects>
                <_>
                  0 14 20 6 -1.</_>
                <_>
                  5 14 10 6 2.</_></rects>
              <tilted>0</tilted></feature>
            <threshold>-0.0120919998735189</threshold>
            <left_val>0.3851138055324554</left_val>
            <right_val>-1.0000029802322388</right_val></_></_></trees>
      <stage_threshold>0.3851138055324554</stage_threshold>
      <parent>5</parent>
      <next>-1</next></_>
    <_>
      <trees>
        <_>
          <_>
            <feature>
              <rects>
                <_>
                  1 1 5 8 -1.</_>
                <_>
                  1 3 5 4 2.</_></rects>
              <tilted>0</tilted></feature>
            <threshold>-7.3134219273924828e-003</threshold>
            <left_val>-1.</left_val>
            <right_val>0.3291926980018616</right_val></_></_>
        <_>
          <_>
            <feature>
              <rects>
                <_>
                  20 4 4 1 -1.</_>
                <_>
                  20 4 2 1 2.</_></rects>
              <tilted>1</tilted></feature>
            <threshold>-2.7332811150699854e-003</threshold>
            <left_val>0.3028339147567749</left_val>
            <right_val>-0.3015241920948029</right_val></_></_>
        <_>
          <_>
            <feature>
              <rects>
                <_>
                  3 1 18 8 -1.</_>
                <_>
                  3 1 9 4 2.</_>
                <_>
                  12 5 9 4 2.</_></rects>
              <tilted>0</tilted></feature>
            <threshold>0.0116976704448462</threshold>
            <left_val>0.3396224975585938</left_val>
            <right_val>-0.8914288282394409</right_val></_></_></trees>
      <stage_threshold>-0.2594021856784821</stage_threshold>
      <parent>6</parent>
      <next>-1</next></_>
    <_>
      <trees>
        <_>
          <_>
            <feature>
              <rects>
                <_>
                  4 0 5 4 -1.</_>
                <_>
                  4 2 5 2 2.</_></rects>
              <tilted>0</tilted></feature>
            <threshold>-1.7956460360437632e-003</threshold>
            <left_val>0.3614808917045593</left_val>
            <right_val>-0.8538265824317932</right_val></_></_>
        <_>
          <_>
            <feature>
              <rects>
                <_>
                  22 9 2 15 -1.</_>
                <_>
                  22 9 1 15 2.</_></rects>
              <tilted>0</tilted></feature>
            <threshold>6.9332099519670010e-004</threshold>
            <left_val>0.1180595010519028</left_val>
            <right_val>-0.6819270253181458</right_val></_></_>
        <_>
          <_>
            <feature>
              <rects>
                <_>
                  0 9 2 14 -1.</_>
                <_>
                  1 9 1 14 2.</_></rects>
              <tilted>0</tilted></feature>
            <threshold>-1.4552349457517266e-003</threshold>
            <left_val>0.4347709119319916</left_val>
            <right_val>-0.7957391142845154</right_val></_></_>
        <_>
          <_>
            <feature>
              <rects>
                <_>
                  16 1 2 5 -1.</_>
                <_>
                  16 1 1 5 2.</_></rects>
              <tilted>0</tilted></feature>
            <threshold>9.1787392739206553e-004</threshold>
            <left_val>0.0364614203572273</left_val>
            <right_val>-0.7265381813049316</right_val></_></_></trees>
      <stage_threshold>-0.2797372043132782</stage_threshold>
      <parent>7</parent>
      <next>-1</next></_>
    <_>
      <trees>
        <_>
          <_>
            <feature>
              <rects>
                <_>
                  12 8 12 1 -1.</_>
                <_>
                  16 12 4 1 3.</_></rects>
              <tilted>1</tilted></feature>
            <threshold>-6.5696658566594124e-003</threshold>
            <left_val>0.4806995093822479</left_val>
            <right_val>-0.6066185235977173</right_val></_></_>
        <_>
          <_>
            <feature>
              <rects>
                <_>
                  16 7 2 4 -1.</_>
                <_>
                  17 7 1 2 2.</_>
                <_>
                  16 9 1 2 2.</_></rects>
              <tilted>0</tilted></feature>
            <threshold>2.1414899674709886e-004</threshold>
            <left_val>-0.4109896123409271</left_val>
            <right_val>0.3607658147811890</right_val></_></_>
        <_>
          <_>
            <feature>
              <rects>
                <_>
                  0 1 23 2 -1.</_>
                <_>
                  0 2 23 1 2.</_></rects>
              <tilted>0</tilted></feature>
            <threshold>-3.5540598910301924e-003</threshold>
            <left_val>0.3764025866985321</left_val>
            <right_val>-0.8450502753257752</right_val></_></_></trees>
      <stage_threshold>-3.5849809646606445e-003</stage_threshold>
      <parent>8</parent>
      <next>-1</next></_>
    <_>
      <trees>
        <_>
          <_>
            <feature>
              <rects>
                <_>
                  2 4 4 5 -1.</_>
                <_>
                  4 4 2 5 2.</_></rects>
              <tilted>0</tilted></feature>
            <threshold>-1.9405080238357186e-003</threshold>
            <left_val>0.3348459005355835</left_val>
            <right_val>-0.8465973734855652</right_val></_></_>
        <_>
          <_>
            <feature>
              <rects>
                <_>
                  13 7 2 16 -1.</_>
                <_>
                  14 7 1 8 2.</_>
                <_>
                  13 15 1 8 2.</_></rects>
              <tilted>0</tilted></feature>
            <threshold>-1.9106050021946430e-003</threshold>
            <left_val>-0.6412730813026428</left_val>
            <right_val>0.0883674770593643</right_val></_></_>
        <_>
          <_>
            <feature>
              <rects>
                <_>
                  9 7 2 16 -1.</_>
                <_>
                  9 7 1 8 2.</_>
                <_>
                  10 15 1 8 2.</_></rects>
              <tilted>0</tilted></feature>
            <threshold>-3.8549580494873226e-004</threshold>
            <left_val>0.3949381113052368</left_val>
            <right_val>-0.6908149123191834</right_val></_></_>
        <_>
          <_>
            <feature>
              <rects>
                <_>
                  16 0 2 4 -1.</_>
                <_>
                  16 0 1 4 2.</_></rects>
              <tilted>0</tilted></feature>
            <threshold>-3.8495589978992939e-003</threshold>
            <left_val>-0.6935747265815735</left_val>
            <right_val>0.0518285110592842</right_val></_></_></trees>
      <stage_threshold>-0.3114632964134216</stage_threshold>
      <parent>9</parent>
      <next>-1</next></_>
    <_>
      <trees>
        <_>
          <_>
            <feature>
              <rects>
                <_>
                  6 1 2 5 -1.</_>
                <_>
                  7 1 1 5 2.</_></rects>
              <tilted>0</tilted></feature>
            <threshold>-9.4035430811345577e-004</threshold>
            <left_val>0.4745244085788727</left_val>
            <right_val>-0.6045290231704712</right_val></_></_>
        <_>
          <_>
            <feature>
              <rects>
                <_>
                  5 15 14 6 -1.</_>
                <_>
                  5 18 14 3 2.</_></rects>
              <tilted>0</tilted></feature>
            <threshold>0.0311424694955349</threshold>
            <left_val>-0.7982099056243897</left_val>
            <right_val>0.3478440940380096</right_val></_></_>
        <_>
          <_>
            <feature>
              <rects>
                <_>
                  7 11 6 3 -1.</_>
                <_>
                  9 13 2 3 3.</_></rects>
              <tilted>1</tilted></feature>
            <threshold>-3.6753639578819275e-003</threshold>
            <left_val>-0.6868162751197815</left_val>
            <right_val>0.4179374873638153</right_val></_></_></trees>
      <stage_threshold>0.0942520201206207</stage_threshold>
      <parent>10</parent>
      <next>-1</next></_>
    <_>
      <trees>
        <_>
          <_>
            <feature>
              <rects>
                <_>
                  9 9 6 3 -1.</_>
                <_>
                  11 10 2 1 9.</_></rects>
              <tilted>0</tilted></feature>
            <threshold>9.0387900127097964e-004</threshold>
            <left_val>0.3088687062263489</left_val>
            <right_val>-1.0000020265579224</right_val></_></_>
        <_>
          <_>
            <feature>
              <rects>
                <_>
                  22 14 2 2 -1.</_>
                <_>
                  22 14 2 1 2.</_></rects>
              <tilted>1</tilted></feature>
            <threshold>5.9193180641159415e-004</threshold>
            <left_val>-0.4235120117664337</left_val>
            <right_val>0.2925651073455811</right_val></_></_>
        <_>
          <_>
            <feature>
              <rects>
                <_>
                  12 4 8 2 -1.</_>
                <_>
                  14 6 4 2 2.</_></rects>
              <tilted>1</tilted></feature>
            <threshold>-1.2505890335887671e-003</threshold>
            <left_val>0.4124107956886292</left_val>
            <right_val>-0.7014942169189453</right_val></_></_></trees>
      <stage_threshold>-0.1000605002045631</stage_threshold>
      <parent>11</parent>
      <next>-1</next></_></stages></myhaar>
</opencv_storage>
